<?xml version="1.0"?>
<opencv_storage>
<output type_id="opencv-haar-classifier">
  <size>
    24 24</size>
  <stages>
    <_>
      <trees>
        <_>
          <_>
            <feature>
              <rects>
                <_>
                  2 5 13 14 -1.</_>
                <_>
                  2 12 13 7 2.</_></rects>
              <tilted>0</tilted></feature>
            <threshold>-0.0921832770109177</threshold>
            <left_val>0.4487893879413605</left_val>
            <right_val>-0.5918846130371094</right_val></_></_>
        <_>
          <_>
            <feature>
              <rects>
                <_>
                  6 0 8 8 -1.</_>
                <_>
                  6 2 8 4 2.</_></rects>
              <tilted>0</tilted></feature>
            <threshold>-0.0206657107919455</threshold>
            <left_val>0.5361557006835938</left_val>
            <right_val>-0.3364033102989197</right_val></_></_>
        <_>
          <_>
            <feature>
              <rects>
                <_>
                  18 18 2 1 -1.</_>
                <_>
                  19 18 1 1 2.</_></rects>
              <tilted>0</tilted></feature>
            <threshold>1.9148150386172347e-005</threshold>
            <left_val>-0.4482411146163940</left_val>
            <right_val>0.3659231960773468</right_val></_></_>
        <_>
          <_>
            <feature>
              <rects>
                <_>
                  0 19 2 1 -1.</_>
                <_>
                  1 19 1 1 2.</_></rects>
              <tilted>0</tilted></feature>
            <threshold>-1.7267549992538989e-005</threshold>
            <left_val>0.3260152041912079</left_val>
            <right_val>-0.4155754148960114</right_val></_></_>
        <_>
          <_>
            <feature>
              <rects>
                <_>
                  0 18 20 2 -1.</_>
                <_>
                  5 18 10 2 2.</_></rects>
              <tilted>0</tilted></feature>
            <threshold>-9.8959952592849731e-003</threshold>
            <left_val>0.3384442031383514</left_val>
            <right_val>-0.2988731861114502</right_val></_></_>
        <_>
          <_>
            <feature>
              <rects>
                <_>
                  17 4 2 16 -1.</_>
                <_>
                  17 8 2 8 2.</_></rects>
              <tilted>0</tilted></feature>
            <threshold>-0.0272926408797503</threshold>
            <left_val>0.5048034787178040</left_val>
            <right_val>-0.1425662040710449</right_val></_></_>
        <_>
          <_>
            <feature>
              <rects>
                <_>
                  2 2 8 15 -1.</_>
                <_>
                  2 7 8 5 3.</_></rects>
              <tilted>0</tilted></feature>
            <threshold>0.1562996953725815</threshold>
            <left_val>-0.1363666057586670</left_val>
            <right_val>0.6164773106575012</right_val></_></_>
        <_>
          <_>
            <feature>
              <rects>
                <_>
                  1 4 1 16 -1.</_>
                <_>
                  1 8 1 8 2.</_></rects>
              <tilted>0</tilted></feature>
            <threshold>-0.0114010302349925</threshold>
            <left_val>0.4448873996734619</left_val>
            <right_val>-0.2070917040109634</right_val></_></_>
        <_>
          <_>
            <feature>
              <rects>
                <_>
                  1 18 14 2 -1.</_>
                <_>
                  1 18 7 1 2.</_>
                <_>
                  8 19 7 1 2.</_></rects>
              <tilted>0</tilted></feature>
            <threshold>-5.7422867976129055e-003</threshold>
            <left_val>0.4452849030494690</left_val>
            <right_val>-0.1379396021366119</right_val></_></_>
        <_>
          <_>
            <feature>
              <rects>
                <_>
                  17 19 2 1 -1.</_>
                <_>
                  18 19 1 1 2.</_></rects>
              <tilted>0</tilted></feature>
            <threshold>4.2291208956157789e-005</threshold>
            <left_val>-0.2626228034496307</left_val>
            <right_val>0.2472489029169083</right_val></_></_>
        <_>
          <_>
            <feature>
              <rects>
                <_>
                  9 0 2 6 -1.</_>
                <_>
                  9 2 2 2 3.</_></rects>
              <tilted>0</tilted></feature>
            <threshold>-4.9294740892946720e-003</threshold>
            <left_val>0.3167886137962341</left_val>
            <right_val>-0.2210718989372253</right_val></_></_>
        <_>
          <_>
            <feature>
              <rects>
                <_>
                  6 3 13 4 -1.</_>
                <_>
                  6 4 13 2 2.</_></rects>
              <tilted>0</tilted></feature>
            <threshold>-9.2028975486755371e-003</threshold>
            <left_val>0.4067254960536957</left_val>
            <right_val>-0.1734676063060761</right_val></_></_>
        <_>
          <_>
            <feature>
              <rects>
                <_>
                  8 5 4 4 -1.</_>
                <_>
                  9 5 2 4 2.</_></rects>
              <tilted>0</tilted></feature>
            <threshold>6.9517781957983971e-003</threshold>
            <left_val>0.1150804981589317</left_val>
            <right_val>-0.6165009737014771</right_val></_></_>
        <_>
          <_>
            <feature>
              <rects>
                <_>
                  4 0 13 12 -1.</_>
                <_>
                  4 3 13 6 2.</_></rects>
              <tilted>0</tilted></feature>
            <threshold>0.0482092499732971</threshold>
            <left_val>-0.2005573064088821</left_val>
            <right_val>0.3400070071220398</right_val></_></_>
        <_>
          <_>
            <feature>
              <rects>
                <_>
                  1 4 5 6 -1.</_>
                <_>
                  1 6 5 2 3.</_></rects>
              <tilted>0</tilted></feature>
            <threshold>-0.0106785800307989</threshold>
            <left_val>0.4435982108116150</left_val>
            <right_val>-0.1651854962110519</right_val></_></_></trees>
      <stage_threshold>-1.2273639440536499</stage_threshold>
      <parent>-1</parent>
      <next>-1</next></_>
    <_>
      <trees>
        <_>
          <_>
            <feature>
              <rects>
                <_>
                  2 4 16 16 -1.</_>
                <_>
                  2 12 16 8 2.</_></rects>
              <tilted>0</tilted></feature>
            <threshold>-0.1893019974231720</threshold>
            <left_val>0.3515411913394928</left_val>
            <right_val>-0.4612798094749451</right_val></_></_>
        <_>
          <_>
            <feature>
              <rects>
                <_>
                  18 11 2 9 -1.</_>
                <_>
                  19 11 1 9 2.</_></rects>
              <tilted>0</tilted></feature>
            <threshold>4.9718860536813736e-003</threshold>
            <left_val>-0.3042829930782318</left_val>
            <right_val>0.3170146048069000</right_val></_></_>
        <_>
          <_>
            <feature>
              <rects>
                <_>
                  0 18 2 1 -1.</_>
                <_>
                  1 18 1 1 2.</_></rects>
              <tilted>0</tilted></feature>
            <threshold>-1.8468979760655202e-005</threshold>
            <left_val>0.2564257979393005</left_val>
            <right_val>-0.3534060120582581</right_val></_></_>
        <_>
          <_>
            <feature>
              <rects>
                <_>
                  5 0 12 8 -1.</_>
                <_>
                  5 2 12 4 2.</_></rects>
              <tilted>0</tilted></feature>
            <threshold>-0.0561198182404041</threshold>
            <left_val>0.5212743282318115</left_val>
            <right_val>-0.1608002930879593</right_val></_></_>
        <_>
          <_>
            <feature>
              <rects>
                <_>
                  1 14 12 6 -1.</_>
                <_>
                  1 14 6 3 2.</_>
                <_>
                  7 17 6 3 2.</_></rects>
              <tilted>0</tilted></feature>
            <threshold>-0.0259214993566275</threshold>
            <left_val>0.4063215851783752</left_val>
            <right_val>-0.1690793037414551</right_val></_></_>
        <_>
          <_>
            <feature>
              <rects>
                <_>
                  10 1 10 10 -1.</_>
                <_>
                  10 1 5 5 2.</_>
                <_>
                  15 6 5 5 2.</_></rects>
              <tilted>0</tilted></feature>
            <threshold>-0.0308201909065247</threshold>
            <left_val>0.3250154852867127</left_val>
            <right_val>-0.1957364976406097</right_val></_></_>
        <_>
          <_>
            <feature>
              <rects>
                <_>
                  17 19 2 1 -1.</_>
                <_>
                  18 19 1 1 2.</_></rects>
              <tilted>0</tilted></feature>
            <threshold>1.8867400285671465e-005</threshold>
            <left_val>-0.2863473892211914</left_val>
            <right_val>0.2017204016447067</right_val></_></_>
        <_>
          <_>
            <feature>
              <rects>
                <_>
                  13 18 2 1 -1.</_>
                <_>
                  14 18 1 1 2.</_></rects>
              <tilted>0</tilted></feature>
            <threshold>1.8079370420309715e-005</threshold>
            <left_val>-0.2341838926076889</left_val>
            <right_val>0.2510322034358978</right_val></_></_>
        <_>
          <_>
            <feature>
              <rects>
                <_>
                  0 0 4 8 -1.</_>
                <_>
                  1 0 2 8 2.</_></rects>
              <tilted>0</tilted></feature>
            <threshold>-0.0163045004010201</threshold>
            <left_val>-0.6927571892738342</left_val>
            <right_val>0.0793437287211418</right_val></_></_>
        <_>
          <_>
            <feature>
              <rects>
                <_>
                  9 9 1 2 -1.</_>
                <_>
                  9 10 1 1 2.</_></rects>
              <tilted>0</tilted></feature>
            <threshold>-1.7336880773655139e-005</threshold>
            <left_val>0.1932311952114105</left_val>
            <right_val>-0.2465025037527084</right_val></_></_>
        <_>
          <_>
            <feature>
              <rects>
                <_>
                  0 5 4 2 -1.</_>
                <_>
                  0 5 2 1 2.</_>
                <_>
                  2 6 2 1 2.</_></rects>
              <tilted>0</tilted></feature>
            <threshold>2.7849960606545210e-003</threshold>
            <left_val>-0.1136441007256508</left_val>
            <right_val>0.4212431013584137</right_val></_></_>
        <_>
          <_>
            <feature>
              <rects>
                <_>
                  13 4 6 16 -1.</_>
                <_>
                  13 8 6 8 2.</_></rects>
              <tilted>0</tilted></feature>
            <threshold>-0.0776049271225929</threshold>
            <left_val>0.3976531028747559</left_val>
            <right_val>-0.1290342062711716</right_val></_></_>
        <_>
          <_>
            <feature>
              <rects>
                <_>
                  14 8 5 12 -1.</_>
                <_>
                  14 14 5 6 2.</_></rects>
              <tilted>0</tilted></feature>
            <threshold>-0.0688292682170868</threshold>
            <left_val>0.3374007940292358</left_val>
            <right_val>-0.1567343026399612</right_val></_></_>
        <_>
          <_>
            <feature>
              <rects>
                <_>
                  0 19 6 1 -1.</_>
                <_>
                  3 19 3 1 2.</_></rects>
              <tilted>0</tilted></feature>
            <threshold>1.4476960059255362e-003</threshold>
            <left_val>0.1461205929517746</left_val>
            <right_val>-0.3660588860511780</right_val></_></_>
        <_>
          <_>
            <feature>
              <rects>
                <_>
                  16 18 1 2 -1.</_>
                <_>
                  16 19 1 1 2.</_></rects>
              <tilted>0</tilted></feature>
            <threshold>4.6049688535276800e-005</threshold>
            <left_val>-0.2104482054710388</left_val>
            <right_val>0.2616913914680481</right_val></_></_>
        <_>
          <_>
            <feature>
              <rects>
                <_>
                  0 12 3 1 -1.</_>
                <_>
                  1 12 1 1 3.</_></rects>
              <tilted>0</tilted></feature>
            <threshold>-2.9899850487709045e-003</threshold>
            <left_val>0.5017594099044800</left_val>
            <right_val>-0.1073492020368576</right_val></_></_>
        <_>
          <_>
            <feature>
              <rects>
                <_>
                  3 3 6 6 -1.</_>
                <_>
                  5 3 2 6 3.</_></rects>
              <tilted>0</tilted></feature>
            <threshold>-0.0380908288061619</threshold>
            <left_val>-0.7868211865425110</left_val>
            <right_val>0.0732849836349487</right_val></_></_>
        <_>
          <_>
            <feature>
              <rects>
                <_>
                  0 7 2 2 -1.</_>
                <_>
                  0 7 1 1 2.</_>
                <_>
                  1 8 1 1 2.</_></rects>
              <tilted>0</tilted></feature>
            <threshold>2.3110069741960615e-004</threshold>
            <left_val>-0.1911213994026184</left_val>
            <right_val>0.2770594060420990</right_val></_></_>
        <_>
          <_>
            <feature>
              <rects>
                <_>
                  0 7 2 2 -1.</_>
                <_>
                  0 7 1 1 2.</_>
                <_>
                  1 8 1 1 2.</_></rects>
              <tilted>0</tilted></feature>
            <threshold>-4.4018710468662903e-005</threshold>
            <left_val>0.2596558928489685</left_val>
            <right_val>-0.2093787044286728</right_val></_></_>
        <_>
          <_>
            <feature>
              <rects>
                <_>
                  18 19 2 1 -1.</_>
                <_>
                  19 19 1 1 2.</_></rects>
              <tilted>0</tilted></feature>
            <threshold>-8.7055162293836474e-004</threshold>
            <left_val>-0.6732652783393860</left_val>
            <right_val>0.0720155835151672</right_val></_></_>
        <_>
          <_>
            <feature>
              <rects>
                <_>
                  4 4 8 4 -1.</_>
                <_>
                  4 5 8 2 2.</_></rects>
              <tilted>0</tilted></feature>
            <threshold>8.7162125855684280e-003</threshold>
            <left_val>-0.1579211056232452</left_val>
            <right_val>0.3324477076530457</right_val></_></_>
        <_>
          <_>
            <feature>
              <rects>
                <_>
                  0 0 10 14 -1.</_>
                <_>
                  0 0 5 7 2.</_>
                <_>
                  5 7 5 7 2.</_></rects>
              <tilted>0</tilted></feature>
            <threshold>0.0875460207462311</threshold>
            <left_val>-0.1029001027345657</left_val>
            <right_val>0.4730162918567658</right_val></_></_>
        <_>
          <_>
            <feature>
              <rects>
                <_>
                  0 15 2 2 -1.</_>
                <_>
                  0 15 1 1 2.</_>
                <_>
                  1 16 1 1 2.</_></rects>
              <tilted>0</tilted></feature>
            <threshold>-8.6195371113717556e-004</threshold>
            <left_val>0.4004688858985901</left_val>
            <right_val>-0.1172475963830948</right_val></_></_>
        <_>
          <_>
            <feature>
              <rects>
                <_>
                  18 7 2 4 -1.</_>
                <_>
                  18 7 1 2 2.</_>
                <_>
                  19 9 1 2 2.</_></rects>
              <tilted>0</tilted></feature>
            <threshold>3.2116689253598452e-003</threshold>
            <left_val>-0.1140649989247322</left_val>
            <right_val>0.3982231020927429</right_val></_></_></trees>
      <stage_threshold>-1.2674989700317383</stage_threshold>
      <parent>0</parent>
      <next>-1</next></_>
    <_>
      <trees>
        <_>
          <_>
            <feature>
              <rects>
                <_>
                  1 6 15 12 -1.</_>
                <_>
                  1 12 15 6 2.</_></rects>
              <tilted>0</tilted></feature>
            <threshold>-0.1541773974895477</threshold>
            <left_val>0.2987267971038818</left_val>
            <right_val>-0.3365272879600525</right_val></_></_>
        <_>
          <_>
            <feature>
              <rects>
                <_>
                  18 11 2 8 -1.</_>
                <_>
                  19 11 1 8 2.</_></rects>
              <tilted>0</tilted></feature>
            <threshold>8.7129715830087662e-003</threshold>
            <left_val>-0.1773817986249924</left_val>
            <right_val>0.3467099070549011</right_val></_></_>
        <_>
          <_>
            <feature>
              <rects>
                <_>
                  4 0 8 8 -1.</_>
                <_>
                  4 2 8 4 2.</_></rects>
              <tilted>0</tilted></feature>
            <threshold>-0.0118791600689292</threshold>
            <left_val>0.2284518927335739</left_val>
            <right_val>-0.2540281116962433</right_val></_></_>
        <_>
          <_>
            <feature>
              <rects>
                <_>
                  0 14 2 6 -1.</_>
                <_>
                  1 14 1 6 2.</_></rects>
              <tilted>0</tilted></feature>
            <threshold>-1.4545769954565912e-004</threshold>
            <left_val>0.1687760055065155</left_val>
            <right_val>-0.3508284986019135</right_val></_></_>
        <_>
          <_>
            <feature>
              <rects>
                <_>
                  10 17 1 2 -1.</_>
                <_>
                  10 18 1 1 2.</_></rects>
              <tilted>0</tilted></feature>
            <threshold>-1.9161909222020768e-005</threshold>
            <left_val>0.2612488865852356</left_val>
            <right_val>-0.1930505931377411</right_val></_></_>
        <_>
          <_>
            <feature>
              <rects>
                <_>
                  4 5 9 4 -1.</_>
                <_>
                  7 5 3 4 3.</_></rects>
              <tilted>0</tilted></feature>
            <threshold>-0.0432966798543930</threshold>
            <left_val>-0.7134404182434082</left_val>
            <right_val>0.0477475412189960</right_val></_></_>
        <_>
          <_>
            <feature>
              <rects>
                <_>
                  16 19 2 1 -1.</_>
                <_>
                  17 19 1 1 2.</_></rects>
              <tilted>0</tilted></feature>
            <threshold>1.8468979760655202e-005</threshold>
            <left_val>-0.1985998004674912</left_val>
            <right_val>0.2099485993385315</right_val></_></_>
        <_>
          <_>
            <feature>
              <rects>
                <_>
                  12 4 1 3 -1.</_>
                <_>
                  12 5 1 1 3.</_></rects>
              <tilted>0</tilted></feature>
            <threshold>-2.0037000067532063e-003</threshold>
            <left_val>0.3469178974628449</left_val>
            <right_val>-0.1271872967481613</right_val></_></_>
        <_>
          <_>
            <feature>
              <rects>
                <_>
                  10 4 5 3 -1.</_>
                <_>
                  10 5 5 1 3.</_></rects>
              <tilted>0</tilted></feature>
            <threshold>8.4774158895015717e-003</threshold>
            <left_val>-0.0832479521632195</left_val>
            <right_val>0.4516172111034393</right_val></_></_>
        <_>
          <_>
            <feature>
              <rects>
                <_>
                  14 19 4 1 -1.</_>
                <_>
                  15 19 2 1 2.</_></rects>
              <tilted>0</tilted></feature>
            <threshold>-8.4804522339254618e-004</threshold>
            <left_val>-0.3251486122608185</left_val>
            <right_val>0.1280751973390579</right_val></_></_>
        <_>
          <_>
            <feature>
              <rects>
                <_>
                  8 0 2 3 -1.</_>
                <_>
                  8 1 2 1 3.</_></rects>
              <tilted>0</tilted></feature>
            <threshold>-3.8016019389033318e-003</threshold>
            <left_val>0.3682174980640411</left_val>
            <right_val>-0.1083279997110367</right_val></_></_>
        <_>
          <_>
            <feature>
              <rects>
                <_>
                  0 19 4 1 -1.</_>
                <_>
                  2 19 2 1 2.</_></rects>
              <tilted>0</tilted></feature>
            <threshold>-2.5024299247888848e-005</threshold>
            <left_val>0.1540755033493042</left_val>
            <right_val>-0.2551383078098297</right_val></_></_>
        <_>
          <_>
            <feature>
              <rects>
                <_>
                  0 4 6 12 -1.</_>
                <_>
                  2 4 2 12 3.</_></rects>
              <tilted>0</tilted></feature>
            <threshold>-0.0845939889550209</threshold>
            <left_val>-0.9277300834655762</left_val>
            <right_val>0.0437503196299076</right_val></_></_>
        <_>
          <_>
            <feature>
              <rects>
                <_>
                  18 19 2 1 -1.</_>
                <_>
                  19 19 1 1 2.</_></rects>
              <tilted>0</tilted></feature>
            <threshold>2.1144449419807643e-005</threshold>
            <left_val>-0.2826783955097199</left_val>
            <right_val>0.1256237030029297</right_val></_></_>
        <_>
          <_>
            <feature>
              <rects>
                <_>
                  6 5 6 4 -1.</_>
                <_>
                  8 5 2 4 3.</_></rects>
              <tilted>0</tilted></feature>
            <threshold>0.0242742095142603</threshold>
            <left_val>0.0609610192477703</left_val>
            <right_val>-0.6405528187751770</right_val></_></_>
        <_>
          <_>
            <feature>
              <rects>
                <_>
                  0 2 4 6 -1.</_>
                <_>
                  0 2 2 3 2.</_>
                <_>
                  2 5 2 3 2.</_></rects>
              <tilted>0</tilted></feature>
            <threshold>5.5207367986440659e-003</threshold>
            <left_val>-0.1562642008066177</left_val>
            <right_val>0.2533957958221436</right_val></_></_>
        <_>
          <_>
            <feature>
              <rects>
                <_>
                  4 2 15 5 -1.</_>
                <_>
                  9 2 5 5 3.</_></rects>
              <tilted>0</tilted></feature>
            <threshold>-0.0550490207970142</threshold>
            <left_val>0.3101063072681427</left_val>
            <right_val>-0.1249030977487564</right_val></_></_>
        <_>
          <_>
            <feature>
              <rects>
                <_>
                  7 16 8 3 -1.</_>
                <_>
                  7 17 8 1 3.</_></rects>
              <tilted>0</tilted></feature>
            <threshold>-0.0111739896237850</threshold>
            <left_val>0.4119363129138947</left_val>
            <right_val>-0.0968789085745811</right_val></_></_>
        <_>
          <_>
            <feature>
              <rects>
                <_>
                  11 8 1 4 -1.</_>
                <_>
                  11 10 1 2 2.</_></rects>
              <tilted>0</tilted></feature>
            <threshold>-5.3575739002553746e-005</threshold>
            <left_val>0.1483456045389175</left_val>
            <right_val>-0.2671706974506378</right_val></_></_>
        <_>
          <_>
            <feature>
              <rects>
                <_>
                  1 10 6 8 -1.</_>
                <_>
                  1 10 3 4 2.</_>
                <_>
                  4 14 3 4 2.</_></rects>
              <tilted>0</tilted></feature>
            <threshold>-0.0166168306022882</threshold>
            <left_val>0.3015472888946533</left_val>
            <right_val>-0.1266532987356186</right_val></_></_>
        <_>
          <_>
            <feature>
              <rects>
                <_>
                  15 9 4 7 -1.</_>
                <_>
                  15 9 2 7 2.</_></rects>
              <tilted>1</tilted></feature>
            <threshold>0.0386425405740738</threshold>
            <left_val>-0.1094873026013374</left_val>
            <right_val>0.3567026853561401</right_val></_></_>
        <_>
          <_>
            <feature>
              <rects>
                <_>
                  2 4 18 16 -1.</_>
                <_>
                  2 8 18 8 2.</_></rects>
              <tilted>0</tilted></feature>
            <threshold>-0.1336577981710434</threshold>
            <left_val>0.3288145959377289</left_val>
            <right_val>-0.1355264037847519</right_val></_></_>
        <_>
          <_>
            <feature>
              <rects>
                <_>
                  3 8 3 12 -1.</_>
                <_>
                  3 14 3 6 2.</_></rects>
              <tilted>0</tilted></feature>
            <threshold>-0.0314166583120823</threshold>
            <left_val>0.2339220046997070</left_val>
            <right_val>-0.2014911025762558</right_val></_></_>
        <_>
          <_>
            <feature>
              <rects>
                <_>
                  1 4 2 2 -1.</_>
                <_>
                  1 4 1 1 2.</_>
                <_>
                  2 5 1 1 2.</_></rects>
              <tilted>0</tilted></feature>
            <threshold>-1.9235689251217991e-005</threshold>
            <left_val>0.2326847016811371</left_val>
            <right_val>-0.1732719987630844</right_val></_></_>
        <_>
          <_>
            <feature>
              <rects>
                <_>
                  5 19 2 1 -1.</_>
                <_>
                  6 19 1 1 2.</_></rects>
              <tilted>0</tilted></feature>
            <threshold>-1.7949199900613166e-005</threshold>
            <left_val>0.1914227008819580</left_val>
            <right_val>-0.1935209035873413</right_val></_></_>
        <_>
          <_>
            <feature>
              <rects>
                <_>
                  14 19 3 1 -1.</_>
                <_>
                  15 19 1 1 3.</_></rects>
              <tilted>0</tilted></feature>
            <threshold>5.2453548414632678e-004</threshold>
            <left_val>0.1214592009782791</left_val>
            <right_val>-0.3026320040225983</right_val></_></_>
        <_>
          <_>
            <feature>
              <rects>
                <_>
                  7 14 3 3 -1.</_>
                <_>
                  8 15 1 1 9.</_></rects>
              <tilted>0</tilted></feature>
            <threshold>-5.2341469563543797e-003</threshold>
            <left_val>0.3199000060558319</left_val>
            <right_val>-0.1161227002739906</right_val></_></_>
        <_>
          <_>
            <feature>
              <rects>
                <_>
                  7 11 3 5 -1.</_>
                <_>
                  8 11 1 5 3.</_></rects>
              <tilted>0</tilted></feature>
            <threshold>0.0103141497820616</threshold>
            <left_val>-0.0730012729763985</left_val>
            <right_val>0.5745118856430054</right_val></_></_>
        <_>
          <_>
            <feature>
              <rects>
                <_>
                  15 5 4 7 -1.</_>
                <_>
                  16 5 2 7 2.</_></rects>
              <tilted>0</tilted></feature>
            <threshold>-0.0165754090994596</threshold>
            <left_val>-0.7177081108093262</left_val>
            <right_val>0.0555541515350342</right_val></_></_>
        <_>
          <_>
            <feature>
              <rects>
                <_>
                  17 11 3 1 -1.</_>
                <_>
                  18 11 1 1 3.</_></rects>
              <tilted>0</tilted></feature>
            <threshold>4.3117781169712543e-003</threshold>
            <left_val>-0.0614480003714561</left_val>
            <right_val>0.7007715106010437</right_val></_></_>
        <_>
          <_>
            <feature>
              <rects>
                <_>
                  18 18 1 2 -1.</_>
                <_>
                  18 19 1 1 2.</_></rects>
              <tilted>0</tilted></feature>
            <threshold>1.7267549992538989e-005</threshold>
            <left_val>-0.1781717985868454</left_val>
            <right_val>0.2059710025787354</right_val></_></_></trees>
      <stage_threshold>-0.9134439826011658</stage_threshold>
      <parent>1</parent>
      <next>-1</next></_>
    <_>
      <trees>
        <_>
          <_>
            <feature>
              <rects>
                <_>
                  1 6 19 10 -1.</_>
                <_>
                  1 11 19 5 2.</_></rects>
              <tilted>0</tilted></feature>
            <threshold>-0.1644095927476883</threshold>
            <left_val>0.2926596999168396</left_val>
            <right_val>-0.2739644050598145</right_val></_></_>
        <_>
          <_>
            <feature>
              <rects>
                <_>
                  16 10 4 9 -1.</_>
                <_>
                  17 10 2 9 2.</_></rects>
              <tilted>0</tilted></feature>
            <threshold>-3.8592030759900808e-003</threshold>
            <left_val>0.2819947898387909</left_val>
            <right_val>-0.2930876016616821</right_val></_></_>
        <_>
          <_>
            <feature>
              <rects>
                <_>
                  16 16 4 2 -1.</_>
                <_>
                  18 16 2 2 2.</_></rects>
              <tilted>0</tilted></feature>
            <threshold>8.9008337818086147e-004</threshold>
            <left_val>-0.2604024112224579</left_val>
            <right_val>0.1873161047697067</right_val></_></_>
        <_>
          <_>
            <feature>
              <rects>
                <_>
                  5 3 9 16 -1.</_>
                <_>
                  5 7 9 8 2.</_></rects>
              <tilted>0</tilted></feature>
            <threshold>0.1700679957866669</threshold>
            <left_val>-0.1102010980248451</left_val>
            <right_val>0.4913102984428406</right_val></_></_>
        <_>
          <_>
            <feature>
              <rects>
                <_>
                  0 10 2 10 -1.</_>
                <_>
                  1 10 1 10 2.</_></rects>
              <tilted>0</tilted></feature>
            <threshold>-6.9802030920982361e-003</threshold>
            <left_val>0.3776046037673950</left_val>
            <right_val>-0.1357281953096390</right_val></_></_>
        <_>
          <_>
            <feature>
              <rects>
                <_>
                  17 13 3 1 -1.</_>
                <_>
                  18 14 1 1 3.</_></rects>
              <tilted>1</tilted></feature>
            <threshold>2.8566250111907721e-003</threshold>
            <left_val>-0.1313278973102570</left_val>
            <right_val>0.3543286025524139</right_val></_></_>
        <_>
          <_>
            <feature>
              <rects>
                <_>
                  0 18 1 2 -1.</_>
                <_>
                  0 19 1 1 2.</_></rects>
              <tilted>0</tilted></feature>
            <threshold>-1.0201700497418642e-003</threshold>
            <left_val>-0.4246186912059784</left_val>
            <right_val>0.1146619021892548</right_val></_></_>
        <_>
          <_>
            <feature>
              <rects>
                <_>
                  2 4 7 6 -1.</_>
                <_>
                  2 6 7 2 3.</_></rects>
              <tilted>0</tilted></feature>
            <threshold>0.0242304299026728</threshold>
            <left_val>-0.1619957983493805</left_val>
            <right_val>0.2637236118316650</right_val></_></_>
        <_>
          <_>
            <feature>
              <rects>
                <_>
                  0 0 20 12 -1.</_>
                <_>
                  0 6 20 6 2.</_></rects>
              <tilted>0</tilted></feature>
            <threshold>-0.2583020031452179</threshold>
            <left_val>0.4502120912075043</left_val>
            <right_val>-0.0846696272492409</right_val></_></_>
        <_>
          <_>
            <feature>
              <rects>
                <_>
                  0 10 2 2 -1.</_>
                <_>
                  1 10 1 2 2.</_></rects>
              <tilted>0</tilted></feature>
            <threshold>1.0325639741495252e-003</threshold>
            <left_val>-0.1407869011163712</left_val>
            <right_val>0.2980287075042725</right_val></_></_>
        <_>
          <_>
            <feature>
              <rects>
                <_>
                  2 5 8 3 -1.</_>
                <_>
                  4 5 4 3 2.</_></rects>
              <tilted>0</tilted></feature>
            <threshold>0.0218598190695047</threshold>
            <left_val>0.0667380020022392</left_val>
            <right_val>-0.6592562198638916</right_val></_></_>
        <_>
          <_>
            <feature>
              <rects>
                <_>
                  18 19 2 1 -1.</_>
                <_>
                  19 19 1 1 2.</_></rects>
              <tilted>0</tilted></feature>
            <threshold>-5.9262121794745326e-004</threshold>
            <left_val>-0.6210092902183533</left_val>
            <right_val>0.0471728816628456</right_val></_></_>
        <_>
          <_>
            <feature>
              <rects>
                <_>
                  17 11 3 1 -1.</_>
                <_>
                  18 11 1 1 3.</_></rects>
              <tilted>0</tilted></feature>
            <threshold>1.6081619542092085e-003</threshold>
            <left_val>-0.1030270978808403</left_val>
            <right_val>0.3946383893489838</right_val></_></_>
        <_>
          <_>
            <feature>
              <rects>
                <_>
                  0 9 3 5 -1.</_>
                <_>
                  1 9 1 5 3.</_></rects>
              <tilted>0</tilted></feature>
            <threshold>-6.2888688407838345e-003</threshold>
            <left_val>0.3534410893917084</left_val>
            <right_val>-0.1014366000890732</right_val></_></_>
        <_>
          <_>
            <feature>
              <rects>
                <_>
                  11 14 2 6 -1.</_>
                <_>
                  11 17 2 3 2.</_></rects>
              <tilted>0</tilted></feature>
            <threshold>-2.3074839264154434e-003</threshold>
            <left_val>0.1828549951314926</left_val>
            <right_val>-0.2088288068771362</right_val></_></_>
        <_>
          <_>
            <feature>
              <rects>
                <_>
                  16 13 4 3 -1.</_>
                <_>
                  16 13 2 3 2.</_></rects>
              <tilted>1</tilted></feature>
            <threshold>-0.0301535893231630</threshold>
            <left_val>0.4659967124462128</left_val>
            <right_val>-0.0833121091127396</right_val></_></_>
        <_>
          <_>
            <feature>
              <rects>
                <_>
                  8 0 6 2 -1.</_>
                <_>
                  8 1 6 1 2.</_></rects>
              <tilted>0</tilted></feature>
            <threshold>-8.9834313839673996e-003</threshold>
            <left_val>0.3538846969604492</left_val>
            <right_val>-0.0987441763281822</right_val></_></_>
        <_>
          <_>
            <feature>
              <rects>
                <_>
                  1 17 2 1 -1.</_>
                <_>
                  1 17 1 1 2.</_></rects>
              <tilted>1</tilted></feature>
            <threshold>-1.9262220012024045e-003</threshold>
            <left_val>-0.4717398881912231</left_val>
            <right_val>0.0766273885965347</right_val></_></_>
        <_>
          <_>
            <feature>
              <rects>
                <_>
                  7 9 7 4 -1.</_>
                <_>
                  7 11 7 2 2.</_></rects>
              <tilted>0</tilted></feature>
            <threshold>-0.0102382199838758</threshold>
            <left_val>0.1827774941921234</left_val>
            <right_val>-0.1854792982339859</right_val></_></_>
        <_>
          <_>
            <feature>
              <rects>
                <_>
                  5 14 3 3 -1.</_>
                <_>
                  6 15 1 1 9.</_></rects>
              <tilted>0</tilted></feature>
            <threshold>4.5619769953191280e-003</threshold>
            <left_val>-0.1163975000381470</left_val>
            <right_val>0.3140543103218079</right_val></_></_>
        <_>
          <_>
            <feature>
              <rects>
                <_>
                  10 4 8 6 -1.</_>
                <_>
                  12 4 4 6 2.</_></rects>
              <tilted>0</tilted></feature>
            <threshold>-0.0396127104759216</threshold>
            <left_val>-0.7099770903587341</left_val>
            <right_val>0.0488767512142658</right_val></_></_>
        <_>
          <_>
            <feature>
              <rects>
                <_>
                  0 1 18 3 -1.</_>
                <_>
                  6 1 6 3 3.</_></rects>
              <tilted>0</tilted></feature>
            <threshold>0.0567568801343441</threshold>
            <left_val>-0.0851298868656158</left_val>
            <right_val>0.4111095964908600</right_val></_></_>
        <_>
          <_>
            <feature>
              <rects>
                <_>
                  2 1 15 3 -1.</_>
                <_>
                  7 1 5 3 3.</_></rects>
              <tilted>0</tilted></feature>
            <threshold>-0.0111116804182529</threshold>
            <left_val>0.2179622948169708</left_val>
            <right_val>-0.1962625980377197</right_val></_></_>
        <_>
          <_>
            <feature>
              <rects>
                <_>
                  3 19 2 1 -1.</_>
                <_>
                  4 19 1 1 2.</_></rects>
              <tilted>0</tilted></feature>
            <threshold>7.5785449007526040e-004</threshold>
            <left_val>0.0941131114959717</left_val>
            <right_val>-0.3842132985591888</right_val></_></_>
        <_>
          <_>
            <feature>
              <rects>
                <_>
                  18 11 2 2 -1.</_>
                <_>
                  18 11 1 1 2.</_>
                <_>
                  19 12 1 1 2.</_></rects>
              <tilted>0</tilted></feature>
            <threshold>-8.5032748756930232e-004</threshold>
            <left_val>0.3341265022754669</left_val>
            <right_val>-0.1032119989395142</right_val></_></_>
        <_>
          <_>
            <feature>
              <rects>
                <_>
                  1 19 2 1 -1.</_>
                <_>
                  2 19 1 1 2.</_></rects>
              <tilted>0</tilted></feature>
            <threshold>1.2915340485051274e-003</threshold>
            <left_val>0.0631541833281517</left_val>
            <right_val>-0.5445293188095093</right_val></_></_>
        <_>
          <_>
            <feature>
              <rects>
                <_>
                  4 17 3 3 -1.</_>
                <_>
                  4 18 3 1 3.</_></rects>
              <tilted>0</tilted></feature>
            <threshold>-9.5683438703417778e-003</threshold>
            <left_val>0.5610197186470032</left_val>
            <right_val>-0.0657218322157860</right_val></_></_>
        <_>
          <_>
            <feature>
              <rects>
                <_>
                  7 19 2 1 -1.</_>
                <_>
                  8 19 1 1 2.</_></rects>
              <tilted>0</tilted></feature>
            <threshold>-1.9235689251217991e-005</threshold>
            <left_val>0.1761523932218552</left_val>
            <right_val>-0.1742058992385864</right_val></_></_>
        <_>
          <_>
            <feature>
              <rects>
                <_>
                  18 9 2 4 -1.</_>
                <_>
                  18 10 2 2 2.</_></rects>
              <tilted>0</tilted></feature>
            <threshold>6.5946187824010849e-003</threshold>
            <left_val>0.0525336414575577</left_val>
            <right_val>-0.5660349726676941</right_val></_></_>
        <_>
          <_>
            <feature>
              <rects>
                <_>
                  2 17 13 3 -1.</_>
                <_>
                  2 18 13 1 3.</_></rects>
              <tilted>0</tilted></feature>
            <threshold>6.9243209436535835e-003</threshold>
            <left_val>-0.1049837991595268</left_val>
            <right_val>0.3249477148056030</right_val></_></_>
        <_>
          <_>
            <feature>
              <rects>
                <_>
                  17 12 3 1 -1.</_>
                <_>
                  18 12 1 1 3.</_></rects>
              <tilted>0</tilted></feature>
            <threshold>-1.6983760287985206e-003</threshold>
            <left_val>0.2897317111492157</left_val>
            <right_val>-0.1120046973228455</right_val></_></_>
        <_>
          <_>
            <feature>
              <rects>
                <_>
                  18 3 2 10 -1.</_>
                <_>
                  19 3 1 10 2.</_></rects>
              <tilted>0</tilted></feature>
            <threshold>-7.8419931232929230e-003</threshold>
            <left_val>0.3664838075637817</left_val>
            <right_val>-0.0956403836607933</right_val></_></_>
        <_>
          <_>
            <feature>
              <rects>
                <_>
                  19 18 1 2 -1.</_>
                <_>
                  19 19 1 1 2.</_></rects>
              <tilted>0</tilted></feature>
            <threshold>-1.8228590488433838e-003</threshold>
            <left_val>-0.5189108848571777</left_val>
            <right_val>0.0688983500003815</right_val></_></_>
        <_>
          <_>
            <feature>
              <rects>
                <_>
                  7 0 8 4 -1.</_>
                <_>
                  6 1 8 2 2.</_></rects>
              <tilted>1</tilted></feature>
            <threshold>0.0431502498686314</threshold>
            <left_val>0.0333214998245239</left_val>
            <right_val>-0.7648779749870300</right_val></_></_>
        <_>
          <_>
            <feature>
              <rects>
                <_>
                  14 1 6 6 -1.</_>
                <_>
                  14 1 3 3 2.</_>
                <_>
                  17 4 3 3 2.</_></rects>
              <tilted>0</tilted></feature>
            <threshold>-0.0114541603252292</threshold>
            <left_val>0.2387215048074722</left_val>
            <right_val>-0.1373002976179123</right_val></_></_></trees>
      <stage_threshold>-0.8795362114906311</stage_threshold>
      <parent>2</parent>
      <next>-1</next></_>
    <_>
      <trees>
        <_>
          <_>
            <feature>
              <rects>
                <_>
                  0 4 19 16 -1.</_>
                <_>
                  0 12 19 8 2.</_></rects>
              <tilted>0</tilted></feature>
            <threshold>-0.2443962991237640</threshold>
            <left_val>0.1905566006898880</left_val>
            <right_val>-0.3031201064586639</right_val></_></_>
        <_>
          <_>
            <feature>
              <rects>
                <_>
                  17 18 2 1 -1.</_>
                <_>
                  18 18 1 1 2.</_></rects>
              <tilted>0</tilted></feature>
            <threshold>1.7582680811756290e-005</threshold>
            <left_val>-0.2805727124214172</left_val>
            <right_val>0.1946732997894287</right_val></_></_>
        <_>
          <_>
            <feature>
              <rects>
                <_>
                  8 3 4 6 -1.</_>
                <_>
                  8 6 4 3 2.</_></rects>
              <tilted>0</tilted></feature>
            <threshold>0.0165641196072102</threshold>
            <left_val>-0.1716423034667969</left_val>
            <right_val>0.2762725949287415</right_val></_></_>
        <_>
          <_>
            <feature>
              <rects>
                <_>
                  0 17 2 1 -1.</_>
                <_>
                  1 17 1 1 2.</_></rects>
              <tilted>0</tilted></feature>
            <threshold>-1.7946009393199347e-005</threshold>
            <left_val>0.2305682003498077</left_val>
            <right_val>-0.2420541048049927</right_val></_></_>
        <_>
          <_>
            <feature>
              <rects>
                <_>
                  0 17 18 3 -1.</_>
                <_>
                  6 17 6 3 3.</_></rects>
              <tilted>0</tilted></feature>
            <threshold>-0.0446934998035431</threshold>
            <left_val>0.3155837953090668</left_val>
            <right_val>-0.1550430953502655</right_val></_></_>
        <_>
          <_>
            <feature>
              <rects>
                <_>
                  5 0 4 5 -1.</_>
                <_>
                  5 0 2 5 2.</_></rects>
              <tilted>1</tilted></feature>
            <threshold>0.0380542986094952</threshold>
            <left_val>-0.0757336169481277</left_val>
            <right_val>0.4629726111888886</right_val></_></_>
        <_>
          <_>
            <feature>
              <rects>
                <_>
                  0 1 16 15 -1.</_>
                <_>
                  4 1 8 15 2.</_></rects>
              <tilted>0</tilted></feature>
            <threshold>0.0941518992185593</threshold>
            <left_val>-0.0932495966553688</left_val>
            <right_val>0.3995564877986908</right_val></_></_>
        <_>
          <_>
            <feature>
              <rects>
                <_>
                  11 1 8 16 -1.</_>
                <_>
                  11 1 4 8 2.</_>
                <_>
                  15 9 4 8 2.</_></rects>
              <tilted>0</tilted></feature>
            <threshold>-0.0748263299465179</threshold>
            <left_val>0.4335955977439880</left_val>
            <right_val>-0.0998047962784767</right_val></_></_>
        <_>
          <_>
            <feature>
              <rects>
                <_>
                  2 4 17 6 -1.</_>
                <_>
                  2 6 17 2 3.</_></rects>
              <tilted>0</tilted></feature>
            <threshold>0.0725443288683891</threshold>
            <left_val>-0.1037252992391586</left_val>
            <right_val>0.3464334905147553</right_val></_></_>
        <_>
          <_>
            <feature>
              <rects>
                <_>
                  16 3 1 16 -1.</_>
                <_>
                  12 7 1 8 2.</_></rects>
              <tilted>1</tilted></feature>
            <threshold>-0.0349171385169029</threshold>
            <left_val>0.3921577036380768</left_val>
            <right_val>-0.1129084005951881</right_val></_></_>
        <_>
          <_>
            <feature>
              <rects>
                <_>
                  8 15 12 3 -1.</_>
                <_>
                  12 15 4 3 3.</_></rects>
              <tilted>0</tilted></feature>
            <threshold>-0.0132044702768326</threshold>
            <left_val>0.2406809031963348</left_val>
            <right_val>-0.1391129940748215</right_val></_></_>
        <_>
          <_>
            <feature>
              <rects>
                <_>
                  15 13 4 3 -1.</_>
                <_>
                  15 13 2 3 2.</_></rects>
              <tilted>1</tilted></feature>
            <threshold>0.0222419109195471</threshold>
            <left_val>-0.1054662987589836</left_val>
            <right_val>0.3506380915641785</right_val></_></_>
        <_>
          <_>
            <feature>
              <rects>
                <_>
                  17 18 3 2 -1.</_>
                <_>
                  18 18 1 2 3.</_></rects>
              <tilted>0</tilted></feature>
            <threshold>3.4941860940307379e-003</threshold>
            <left_val>0.0688187927007675</left_val>
            <right_val>-0.6030817031860352</right_val></_></_>
        <_>
          <_>
            <feature>
              <rects>
                <_>
                  8 7 4 1 -1.</_>
                <_>
                  9 7 2 1 2.</_></rects>
              <tilted>0</tilted></feature>
            <threshold>-3.1739049591124058e-003</threshold>
            <left_val>-0.5240669846534729</left_val>
            <right_val>0.0571200698614120</right_val></_></_>
        <_>
          <_>
            <feature>
              <rects>
                <_>
                  8 7 4 2 -1.</_>
                <_>
                  9 7 2 2 2.</_></rects>
              <tilted>0</tilted></feature>
            <threshold>5.5406992323696613e-003</threshold>
            <left_val>0.0537960901856422</left_val>
            <right_val>-0.6763324141502380</right_val></_></_>
        <_>
          <_>
            <feature>
              <rects>
                <_>
                  17 19 2 1 -1.</_>
                <_>
                  18 19 1 1 2.</_></rects>
              <tilted>0</tilted></feature>
            <threshold>-6.7738967482000589e-004</threshold>
            <left_val>-0.5035374164581299</left_val>
            <right_val>0.0555750913918018</right_val></_></_>
        <_>
          <_>
            <feature>
              <rects>
                <_>
                  9 1 1 2 -1.</_>
                <_>
                  9 2 1 1 2.</_></rects>
              <tilted>0</tilted></feature>
            <threshold>-5.0029750127578154e-005</threshold>
            <left_val>0.1607100963592529</left_val>
            <right_val>-0.2090363055467606</right_val></_></_>
        <_>
          <_>
            <feature>
              <rects>
                <_>
                  3 2 4 16 -1.</_>
                <_>
                  3 6 4 8 2.</_></rects>
              <tilted>0</tilted></feature>
            <threshold>0.0771728977560997</threshold>
            <left_val>-0.1003352031111717</left_val>
            <right_val>0.3284254968166351</right_val></_></_>
        <_>
          <_>
            <feature>
              <rects>
                <_>
                  15 0 4 20 -1.</_>
                <_>
                  15 5 4 10 2.</_></rects>
              <tilted>0</tilted></feature>
            <threshold>-0.0583556294441223</threshold>
            <left_val>0.3470546007156372</left_val>
            <right_val>-0.1112098023295403</right_val></_></_>
        <_>
          <_>
            <feature>
              <rects>
                <_>
                  0 8 12 10 -1.</_>
                <_>
                  4 8 4 10 3.</_></rects>
              <tilted>0</tilted></feature>
            <threshold>-0.0568067096173763</threshold>
            <left_val>0.3145220875740051</left_val>
            <right_val>-0.1041833013296127</right_val></_></_>
        <_>
          <_>
            <feature>
              <rects>
                <_>
                  6 7 9 6 -1.</_>
                <_>
                  6 10 9 3 2.</_></rects>
              <tilted>0</tilted></feature>
            <threshold>-0.0433635897934437</threshold>
            <left_val>0.2214522957801819</left_val>
            <right_val>-0.1618490070104599</right_val></_></_>
        <_>
          <_>
            <feature>
              <rects>
                <_>
                  1 1 8 14 -1.</_>
                <_>
                  1 1 4 7 2.</_>
                <_>
                  5 8 4 7 2.</_></rects>
              <tilted>0</tilted></feature>
            <threshold>0.0583769492805004</threshold>
            <left_val>-0.0935121402144432</left_val>
            <right_val>0.4054956138134003</right_val></_></_>
        <_>
          <_>
            <feature>
              <rects>
                <_>
                  0 2 20 3 -1.</_>
                <_>
                  5 2 10 3 2.</_></rects>
              <tilted>0</tilted></feature>
            <threshold>0.0347505584359169</threshold>
            <left_val>-0.0954745784401894</left_val>
            <right_val>0.4205986857414246</right_val></_></_>
        <_>
          <_>
            <feature>
              <rects>
                <_>
                  4 1 16 8 -1.</_>
                <_>
                  8 1 8 8 2.</_></rects>
              <tilted>0</tilted></feature>
            <threshold>-0.0443062409758568</threshold>
            <left_val>0.2826102077960968</left_val>
            <right_val>-0.1306913942098618</right_val></_></_>
        <_>
          <_>
            <feature>
              <rects>
                <_>
                  17 0 2 2 -1.</_>
                <_>
                  17 0 1 2 2.</_></rects>
              <tilted>1</tilted></feature>
            <threshold>-8.8634770363569260e-003</threshold>
            <left_val>-0.6046866774559021</left_val>
            <right_val>0.0669964179396629</right_val></_></_>
        <_>
          <_>
            <feature>
              <rects>
                <_>
                  3 6 4 3 -1.</_>
                <_>
                  4 6 2 3 2.</_></rects>
              <tilted>0</tilted></feature>
            <threshold>-0.0106941601261497</threshold>
            <left_val>-0.7473183274269104</left_val>
            <right_val>0.0304122399538755</right_val></_></_>
        <_>
          <_>
            <feature>
              <rects>
                <_>
                  3 5 4 5 -1.</_>
                <_>
                  4 5 2 5 2.</_></rects>
              <tilted>0</tilted></feature>
            <threshold>7.7800541184842587e-003</threshold>
            <left_val>0.0661109909415245</left_val>
            <right_val>-0.4711762070655823</right_val></_></_>
        <_>
          <_>
            <feature>
              <rects>
                <_>
                  9 0 1 3 -1.</_>
                <_>
                  9 1 1 1 3.</_></rects>
              <tilted>0</tilted></feature>
            <threshold>-2.5042979978024960e-003</threshold>
            <left_val>0.3134432137012482</left_val>
            <right_val>-0.0967358276247978</right_val></_></_>
        <_>
          <_>
            <feature>
              <rects>
                <_>
                  0 19 2 1 -1.</_>
                <_>
                  1 19 1 1 2.</_></rects>
              <tilted>0</tilted></feature>
            <threshold>2.2425329370889813e-004</threshold>
            <left_val>0.0879447534680367</left_val>
            <right_val>-0.3605487048625946</right_val></_></_>
        <_>
          <_>
            <feature>
              <rects>
                <_>
                  2 0 17 6 -1.</_>
                <_>
                  2 2 17 2 3.</_></rects>
              <tilted>0</tilted></feature>
            <threshold>-0.1739775985479355</threshold>
            <left_val>-0.8115866780281067</left_val>
            <right_val>0.0295192897319794</right_val></_></_>
        <_>
          <_>
            <feature>
              <rects>
                <_>
                  5 0 14 3 -1.</_>
                <_>
                  5 1 14 1 3.</_></rects>
              <tilted>0</tilted></feature>
            <threshold>0.0226812604814768</threshold>
            <left_val>-0.0674375519156456</left_val>
            <right_val>0.4917699098587036</right_val></_></_>
        <_>
          <_>
            <feature>
              <rects>
                <_>
                  10 13 2 5 -1.</_>
                <_>
                  10 13 1 5 2.</_></rects>
              <tilted>1</tilted></feature>
            <threshold>-0.0152313699945807</threshold>
            <left_val>-0.6503751277923584</left_val>
            <right_val>0.0456640608608723</right_val></_></_>
        <_>
          <_>
            <feature>
              <rects>
                <_>
                  18 3 2 10 -1.</_>
                <_>
                  18 3 1 5 2.</_>
                <_>
                  19 8 1 5 2.</_></rects>
              <tilted>0</tilted></feature>
            <threshold>8.2633206620812416e-003</threshold>
            <left_val>-0.0973033979535103</left_val>
            <right_val>0.2990165054798126</right_val></_></_>
        <_>
          <_>
            <feature>
              <rects>
                <_>
                  18 5 2 6 -1.</_>
                <_>
                  18 5 1 3 2.</_>
                <_>
                  19 8 1 3 2.</_></rects>
              <tilted>0</tilted></feature>
            <threshold>-3.1977701000869274e-003</threshold>
            <left_val>0.3254975080490112</left_val>
            <right_val>-0.1073570027947426</right_val></_></_>
        <_>
          <_>
            <feature>
              <rects>
                <_>
                  1 12 16 8 -1.</_>
                <_>
                  1 12 8 4 2.</_>
                <_>
                  9 16 8 4 2.</_></rects>
              <tilted>0</tilted></feature>
            <threshold>-0.0939711630344391</threshold>
            <left_val>0.4638934135437012</left_val>
            <right_val>-0.0602950714528561</right_val></_></_>
        <_>
          <_>
            <feature>
              <rects>
                <_>
                  0 6 2 7 -1.</_>
                <_>
                  1 6 1 7 2.</_></rects>
              <tilted>0</tilted></feature>
            <threshold>5.2580991759896278e-003</threshold>
            <left_val>-0.0986550971865654</left_val>
            <right_val>0.3067551851272583</right_val></_></_>
        <_>
          <_>
            <feature>
              <rects>
                <_>
                  0 9 4 8 -1.</_>
                <_>
                  1 9 2 8 2.</_></rects>
              <tilted>0</tilted></feature>
            <threshold>-4.3154479935765266e-003</threshold>
            <left_val>0.2059935927391052</left_val>
            <right_val>-0.1616574972867966</right_val></_></_></trees>
      <stage_threshold>-1.0046149492263794</stage_threshold>
      <parent>3</parent>
      <next>-1</next></_>
    <_>
      <trees>
        <_>
          <_>
            <feature>
              <rects>
                <_>
                  12 19 8 1 -1.</_>
                <_>
                  16 19 4 1 2.</_></rects>
              <tilted>0</tilted></feature>
            <threshold>3.4504479845054448e-004</threshold>
            <left_val>-0.2968600988388062</left_val>
            <right_val>0.1548108011484146</right_val></_></_>
        <_>
          <_>
            <feature>
              <rects>
                <_>
                  2 2 8 12 -1.</_>
                <_>
                  2 6 8 4 3.</_></rects>
              <tilted>0</tilted></feature>
            <threshold>0.0989272817969322</threshold>
            <left_val>-0.1656453013420105</left_val>
            <right_val>0.2866638004779816</right_val></_></_>
        <_>
          <_>
            <feature>
              <rects>
                <_>
                  4 19 2 1 -1.</_>
                <_>
                  5 19 1 1 2.</_></rects>
              <tilted>0</tilted></feature>
            <threshold>-1.6614350897725672e-005</threshold>
            <left_val>0.1878414005041122</left_val>
            <right_val>-0.2009457051753998</right_val></_></_>
        <_>
          <_>
            <feature>
              <rects>
                <_>
                  4 1 16 5 -1.</_>
                <_>
                  8 1 8 5 2.</_></rects>
              <tilted>0</tilted></feature>
            <threshold>-0.0777505487203598</threshold>
            <left_val>0.4307917952537537</left_val>
            <right_val>-0.0864628404378891</right_val></_></_>
        <_>
          <_>
            <feature>
              <rects>
                <_>
                  12 0 7 20 -1.</_>
                <_>
                  12 10 7 10 2.</_></rects>
              <tilted>0</tilted></feature>
            <threshold>-0.1033703982830048</threshold>
            <left_val>0.2183915972709656</left_val>
            <right_val>-0.2094662040472031</right_val></_></_>
        <_>
          <_>
            <feature>
              <rects>
                <_>
                  18 11 2 6 -1.</_>
                <_>
                  18 11 1 6 2.</_></rects>
              <tilted>1</tilted></feature>
            <threshold>0.0165454708039761</threshold>
            <left_val>-0.0910330265760422</left_val>
            <right_val>0.4187009036540985</right_val></_></_>
        <_>
          <_>
            <feature>
              <rects>
                <_>
                  0 0 10 16 -1.</_>
                <_>
                  0 0 5 8 2.</_>
                <_>
                  5 8 5 8 2.</_></rects>
              <tilted>0</tilted></feature>
            <threshold>0.0685826987028122</threshold>
            <left_val>-0.1101382002234459</left_val>
            <right_val>0.3098083138465881</right_val></_></_>
        <_>
          <_>
            <feature>
              <rects>
                <_>
                  2 19 2 1 -1.</_>
                <_>
                  3 19 1 1 2.</_></rects>
              <tilted>0</tilted></feature>
            <threshold>-1.9235689251217991e-005</threshold>
            <left_val>0.2035924047231674</left_val>
            <right_val>-0.1732655018568039</right_val></_></_>
        <_>
          <_>
            <feature>
              <rects>
                <_>
                  4 18 3 2 -1.</_>
                <_>
                  5 18 1 2 3.</_></rects>
              <tilted>0</tilted></feature>
            <threshold>-9.8626036196947098e-004</threshold>
            <left_val>-0.2982774972915649</left_val>
            <right_val>0.1002964004874229</right_val></_></_>
        <_>
          <_>
            <feature>
              <rects>
                <_>
                  10 17 6 3 -1.</_>
                <_>
                  10 18 6 1 3.</_></rects>
              <tilted>0</tilted></feature>
            <threshold>-0.0175659991800785</threshold>
            <left_val>0.5454103946685791</left_val>
            <right_val>-0.0397396497428417</right_val></_></_>
        <_>
          <_>
            <feature>
              <rects>
                <_>
                  0 1 18 6 -1.</_>
                <_>
                  6 1 6 6 3.</_></rects>
              <tilted>0</tilted></feature>
            <threshold>0.0545369796454906</threshold>
            <left_val>-0.1007229015231133</left_val>
            <right_val>0.3130030930042267</right_val></_></_>
        <_>
          <_>
            <feature>
              <rects>
                <_>
                  7 0 1 6 -1.</_>
                <_>
                  7 2 1 2 3.</_></rects>
              <tilted>0</tilted></feature>
            <threshold>-1.2614020379260182e-003</threshold>
            <left_val>0.1662359982728958</left_val>
            <right_val>-0.1907579004764557</right_val></_></_>
        <_>
          <_>
            <feature>
              <rects>
                <_>
                  17 9 3 4 -1.</_>
                <_>
                  18 9 1 4 3.</_></rects>
              <tilted>0</tilted></feature>
            <threshold>-5.6206621229648590e-003</threshold>
            <left_val>0.2881993949413300</left_val>
            <right_val>-0.1001619994640350</right_val></_></_>
        <_>
          <_>
            <feature>
              <rects>
                <_>
                  17 9 3 2 -1.</_>
                <_>
                  18 9 1 2 3.</_></rects>
              <tilted>0</tilted></feature>
            <threshold>1.3703049626201391e-003</threshold>
            <left_val>-0.1099553033709526</left_val>
            <right_val>0.2975127100944519</right_val></_></_>
        <_>
          <_>
            <feature>
              <rects>
                <_>
                  16 5 4 2 -1.</_>
                <_>
                  16 5 2 2 2.</_></rects>
              <tilted>1</tilted></feature>
            <threshold>5.5373148061335087e-003</threshold>
            <left_val>-0.1616709977388382</left_val>
            <right_val>0.1790599972009659</right_val></_></_>
        <_>
          <_>
            <feature>
              <rects>
                <_>
                  6 4 7 3 -1.</_>
                <_>
                  6 5 7 1 3.</_></rects>
              <tilted>0</tilted></feature>
            <threshold>-0.0146235795691609</threshold>
            <left_val>0.3718686997890472</left_val>
            <right_val>-0.0831540226936340</right_val></_></_>
        <_>
          <_>
            <feature>
              <rects>
                <_>
                  8 13 12 6 -1.</_>
                <_>
                  12 15 4 2 9.</_></rects>
              <tilted>0</tilted></feature>
            <threshold>-0.0429199300706387</threshold>
            <left_val>0.1992918998003006</left_val>
            <right_val>-0.1454032063484192</right_val></_></_>
        <_>
          <_>
            <feature>
              <rects>
                <_>
                  9 2 1 2 -1.</_>
                <_>
                  9 3 1 1 2.</_></rects>
              <tilted>0</tilted></feature>
            <threshold>-4.5497439714381471e-005</threshold>
            <left_val>0.1682424992322922</left_val>
            <right_val>-0.1768691986799240</right_val></_></_>
        <_>
          <_>
            <feature>
              <rects>
                <_>
                  18 13 2 3 -1.</_>
                <_>
                  18 13 1 3 2.</_></rects>
              <tilted>1</tilted></feature>
            <threshold>4.7588180750608444e-003</threshold>
            <left_val>-0.1199956983327866</left_val>
            <right_val>0.2592087090015411</right_val></_></_>
        <_>
          <_>
            <feature>
              <rects>
                <_>
                  16 10 1 2 -1.</_>
                <_>
                  16 11 1 1 2.</_></rects>
              <tilted>0</tilted></feature>
            <threshold>-1.7250700693693943e-005</threshold>
            <left_val>0.1559762954711914</left_val>
            <right_val>-0.2000551968812943</right_val></_></_>
        <_>
          <_>
            <feature>
              <rects>
                <_>
                  2 8 18 12 -1.</_>
                <_>
                  2 8 9 6 2.</_>
                <_>
                  11 14 9 6 2.</_></rects>
              <tilted>0</tilted></feature>
            <threshold>0.2266062051057816</threshold>
            <left_val>-0.0550258383154869</left_val>
            <right_val>0.6030067205429077</right_val></_></_>
        <_>
          <_>
            <feature>
              <rects>
                <_>
                  19 10 1 8 -1.</_>
                <_>
                  19 12 1 4 2.</_></rects>
              <tilted>0</tilted></feature>
            <threshold>9.3338694423437119e-003</threshold>
            <left_val>0.0583851188421249</left_val>
            <right_val>-0.5542380213737488</right_val></_></_>
        <_>
          <_>
            <feature>
              <rects>
                <_>
                  18 19 2 1 -1.</_>
                <_>
                  19 19 1 1 2.</_></rects>
              <tilted>0</tilted></feature>
            <threshold>-3.1963930814526975e-004</threshold>
            <left_val>-0.4856859147548676</left_val>
            <right_val>0.0572978183627129</right_val></_></_>
        <_>
          <_>
            <feature>
              <rects>
                <_>
                  0 4 12 10 -1.</_>
                <_>
                  3 4 6 10 2.</_></rects>
              <tilted>0</tilted></feature>
            <threshold>-0.0231362897902727</threshold>
            <left_val>0.2434332966804504</left_val>
            <right_val>-0.1278886049985886</right_val></_></_>
        <_>
          <_>
            <feature>
              <rects>
                <_>
                  2 7 4 3 -1.</_>
                <_>
                  3 7 2 3 2.</_></rects>
              <tilted>0</tilted></feature>
            <threshold>-5.8900769799947739e-003</threshold>
            <left_val>-0.4591470062732697</left_val>
            <right_val>0.0684849172830582</right_val></_></_>
        <_>
          <_>
            <feature>
              <rects>
                <_>
                  9 6 6 2 -1.</_>
                <_>
                  11 6 2 2 3.</_></rects>
              <tilted>0</tilted></feature>
            <threshold>0.0186979994177818</threshold>
            <left_val>0.0319000594317913</left_val>
            <right_val>-0.7604553103446960</right_val></_></_>
        <_>
          <_>
            <feature>
              <rects>
                <_>
                  10 0 2 3 -1.</_>
                <_>
                  10 1 2 1 3.</_></rects>
              <tilted>0</tilted></feature>
            <threshold>-1.9353020470589399e-003</threshold>
            <left_val>0.2310587018728256</left_val>
            <right_val>-0.1327695995569229</right_val></_></_>
        <_>
          <_>
            <feature>
              <rects>
                <_>
                  11 5 6 4 -1.</_>
                <_>
                  13 5 2 4 3.</_></rects>
              <tilted>0</tilted></feature>
            <threshold>0.0290960296988487</threshold>
            <left_val>0.0481824614107609</left_val>
            <right_val>-0.6757891774177551</right_val></_></_>
        <_>
          <_>
            <feature>
              <rects>
                <_>
                  3 12 1 3 -1.</_>
                <_>
                  2 13 1 1 3.</_></rects>
              <tilted>1</tilted></feature>
            <threshold>-4.3826969340443611e-003</threshold>
            <left_val>0.2665528953075409</left_val>
            <right_val>-0.1160612031817436</right_val></_></_>
        <_>
          <_>
            <feature>
              <rects>
                <_>
                  13 19 2 1 -1.</_>
                <_>
                  14 19 1 1 2.</_></rects>
              <tilted>0</tilted></feature>
            <threshold>-4.9486261559650302e-004</threshold>
            <left_val>-0.3288693130016327</left_val>
            <right_val>0.0798345282673836</right_val></_></_>
        <_>
          <_>
            <feature>
              <rects>
                <_>
                  12 17 2 1 -1.</_>
                <_>
                  12 17 1 1 2.</_></rects>
              <tilted>1</tilted></feature>
            <threshold>-2.4388090241700411e-003</threshold>
            <left_val>0.3299809992313385</left_val>
            <right_val>-0.0993846729397774</right_val></_></_>
        <_>
          <_>
            <feature>
              <rects>
                <_>
                  8 1 12 7 -1.</_>
                <_>
                  11 1 6 7 2.</_></rects>
              <tilted>0</tilted></feature>
            <threshold>0.0395828001201153</threshold>
            <left_val>-0.0860850214958191</left_val>
            <right_val>0.3406445086002350</right_val></_></_>
        <_>
          <_>
            <feature>
              <rects>
                <_>
                  5 4 6 3 -1.</_>
                <_>
                  5 5 6 1 3.</_></rects>
              <tilted>0</tilted></feature>
            <threshold>8.3836661651730537e-003</threshold>
            <left_val>-0.0799992233514786</left_val>
            <right_val>0.3588978946208954</right_val></_></_>
        <_>
          <_>
            <feature>
              <rects>
                <_>
                  9 2 9 18 -1.</_>
                <_>
                  12 8 3 6 9.</_></rects>
              <tilted>0</tilted></feature>
            <threshold>0.3904761970043182</threshold>
            <left_val>-0.0625532567501068</left_val>
            <right_val>0.5024569034576416</right_val></_></_>
        <_>
          <_>
            <feature>
              <rects>
                <_>
                  8 3 10 4 -1.</_>
                <_>
                  8 3 5 4 2.</_></rects>
              <tilted>1</tilted></feature>
            <threshold>0.1028413996100426</threshold>
            <left_val>-0.1157839968800545</left_val>
            <right_val>0.2573552131652832</right_val></_></_>
        <_>
          <_>
            <feature>
              <rects>
                <_>
                  9 1 1 2 -1.</_>
                <_>
                  9 2 1 1 2.</_></rects>
              <tilted>0</tilted></feature>
            <threshold>-2.0196219338686205e-005</threshold>
            <left_val>0.1539597958326340</left_val>
            <right_val>-0.2073341012001038</right_val></_></_>
        <_>
          <_>
            <feature>
              <rects>
                <_>
                  1 1 9 6 -1.</_>
                <_>
                  1 3 9 2 3.</_></rects>
              <tilted>0</tilted></feature>
            <threshold>-0.0967272818088531</threshold>
            <left_val>-0.7620679140090942</left_val>
            <right_val>0.0363732613623142</right_val></_></_>
        <_>
          <_>
            <feature>
              <rects>
                <_>
                  1 16 14 4 -1.</_>
                <_>
                  1 16 7 2 2.</_>
                <_>
                  8 18 7 2 2.</_></rects>
              <tilted>0</tilted></feature>
            <threshold>-0.0151131004095078</threshold>
            <left_val>0.2317488044500351</left_val>
            <right_val>-0.1209271028637886</right_val></_></_>
        <_>
          <_>
            <feature>
              <rects>
                <_>
                  14 7 2 2 -1.</_>
                <_>
                  15 7 1 2 2.</_></rects>
              <tilted>0</tilted></feature>
            <threshold>1.7469950253143907e-003</threshold>
            <left_val>0.0772051513195038</left_val>
            <right_val>-0.3679346144199371</right_val></_></_>
        <_>
          <_>
            <feature>
              <rects>
                <_>
                  16 2 4 8 -1.</_>
                <_>
                  16 2 2 4 2.</_>
                <_>
                  18 6 2 4 2.</_></rects>
              <tilted>0</tilted></feature>
            <threshold>-0.0130970897153020</threshold>
            <left_val>0.3001936972141266</left_val>
            <right_val>-0.0989615693688393</right_val></_></_>
        <_>
          <_>
            <feature>
              <rects>
                <_>
                  0 19 2 1 -1.</_>
                <_>
                  1 19 1 1 2.</_></rects>
              <tilted>0</tilted></feature>
            <threshold>-1.7267549992538989e-005</threshold>
            <left_val>0.1281358003616333</left_val>
            <right_val>-0.2443013042211533</right_val></_></_>
        <_>
          <_>
            <feature>
              <rects>
                <_>
                  13 3 3 1 -1.</_>
                <_>
                  14 3 1 1 3.</_></rects>
              <tilted>0</tilted></feature>
            <threshold>-2.8519360348582268e-003</threshold>
            <left_val>0.4472112059593201</left_val>
            <right_val>-0.0711852014064789</right_val></_></_>
        <_>
          <_>
            <feature>
              <rects>
                <_>
                  2 5 3 6 -1.</_>
                <_>
                  3 5 1 6 3.</_></rects>
              <tilted>0</tilted></feature>
            <threshold>6.9023468531668186e-003</threshold>
            <left_val>0.0694767683744431</left_val>
            <right_val>-0.4327054917812347</right_val></_></_>
        <_>
          <_>
            <feature>
              <rects>
                <_>
                  0 3 4 4 -1.</_>
                <_>
                  0 3 2 2 2.</_>
                <_>
                  2 5 2 2 2.</_></rects>
              <tilted>0</tilted></feature>
            <threshold>3.8831259589642286e-003</threshold>
            <left_val>-0.1292050033807755</left_val>
            <right_val>0.2334621995687485</right_val></_></_>
        <_>
          <_>
            <feature>
              <rects>
                <_>
                  0 0 3 4 -1.</_>
                <_>
                  0 1 3 2 2.</_></rects>
              <tilted>0</tilted></feature>
            <threshold>-0.0102644795551896</threshold>
            <left_val>-0.5474932193756104</left_val>
            <right_val>0.0530407093465328</right_val></_></_>
        <_>
          <_>
            <feature>
              <rects>
                <_>
                  18 10 2 2 -1.</_>
                <_>
                  18 10 1 1 2.</_>
                <_>
                  19 11 1 1 2.</_></rects>
              <tilted>0</tilted></feature>
            <threshold>-6.8010849645361304e-004</threshold>
            <left_val>0.2551074922084808</left_val>
            <right_val>-0.1105382964015007</right_val></_></_></trees>
      <stage_threshold>-1.0208899974822998</stage_threshold>
      <parent>4</parent>
      <next>-1</next></_>
    <_>
      <trees>
        <_>
          <_>
            <feature>
              <rects>
                <_>
                  18 18 2 1 -1.</_>
                <_>
                  19 18 1 1 2.</_></rects>
              <tilted>0</tilted></feature>
            <threshold>1.9148150386172347e-005</threshold>
            <left_val>-0.2782973051071167</left_val>
            <right_val>0.1157511025667191</right_val></_></_>
        <_>
          <_>
            <feature>
              <rects>
                <_>
                  0 6 12 14 -1.</_>
                <_>
                  0 13 12 7 2.</_></rects>
              <tilted>0</tilted></feature>
            <threshold>-0.1200231984257698</threshold>
            <left_val>0.1370815038681030</left_val>
            <right_val>-0.2512280046939850</right_val></_></_>
        <_>
          <_>
            <feature>
              <rects>
                <_>
                  12 0 3 4 -1.</_>
                <_>
                  11 1 3 2 2.</_></rects>
              <tilted>1</tilted></feature>
            <threshold>-7.0045441389083862e-003</threshold>
            <left_val>0.2526448071002960</left_val>
            <right_val>-0.1001332029700279</right_val></_></_>
        <_>
          <_>
            <feature>
              <rects>
                <_>
                  4 4 10 3 -1.</_>
                <_>
                  4 5 10 1 3.</_></rects>
              <tilted>0</tilted></feature>
            <threshold>-0.0114508802071214</threshold>
            <left_val>0.2764568924903870</left_val>
            <right_val>-0.1056794002652168</right_val></_></_>
        <_>
          <_>
            <feature>
              <rects>
                <_>
                  1 1 4 18 -1.</_>
                <_>
                  1 7 4 6 3.</_></rects>
              <tilted>0</tilted></feature>
            <threshold>-0.1018808037042618</threshold>
            <left_val>0.4794372022151947</left_val>
            <right_val>-0.0704678669571877</right_val></_></_>
        <_>
          <_>
            <feature>
              <rects>
                <_>
                  18 7 2 6 -1.</_>
                <_>
                  18 7 1 3 2.</_>
                <_>
                  19 10 1 3 2.</_></rects>
              <tilted>0</tilted></feature>
            <threshold>4.9244221299886703e-003</threshold>
            <left_val>-0.1147352978587151</left_val>
            <right_val>0.2930764853954315</right_val></_></_>
        <_>
          <_>
            <feature>
              <rects>
                <_>
                  18 17 2 2 -1.</_>
                <_>
                  18 17 1 1 2.</_>
                <_>
                  19 18 1 1 2.</_></rects>
              <tilted>0</tilted></feature>
            <threshold>-1.7267549992538989e-005</threshold>
            <left_val>0.1825674027204514</left_val>
            <right_val>-0.1474183946847916</right_val></_></_>
        <_>
          <_>
            <feature>
              <rects>
                <_>
                  2 4 2 2 -1.</_>
                <_>
                  2 4 2 1 2.</_></rects>
              <tilted>1</tilted></feature>
            <threshold>9.6124997362494469e-003</threshold>
            <left_val>0.0746079608798027</left_val>
            <right_val>-0.5040810704231262</right_val></_></_>
        <_>
          <_>
            <feature>
              <rects>
                <_>
                  4 13 1 4 -1.</_>
                <_>
                  3 14 1 2 2.</_></rects>
              <tilted>1</tilted></feature>
            <threshold>-5.8718840591609478e-003</threshold>
            <left_val>0.2411247044801712</left_val>
            <right_val>-0.1106135994195938</right_val></_></_>
        <_>
          <_>
            <feature>
              <rects>
                <_>
                  17 19 2 1 -1.</_>
                <_>
                  18 19 1 1 2.</_></rects>
              <tilted>0</tilted></feature>
            <threshold>-2.6045981212519109e-004</threshold>
            <left_val>-0.3670299053192139</left_val>
            <right_val>0.0761509388685226</right_val></_></_>
        <_>
          <_>
            <feature>
              <rects>
                <_>
                  14 13 4 2 -1.</_>
                <_>
                  15 14 2 2 2.</_></rects>
              <tilted>1</tilted></feature>
            <threshold>-7.0902248844504356e-003</threshold>
            <left_val>0.2515563964843750</left_val>
            <right_val>-0.1066403016448021</right_val></_></_>
        <_>
          <_>
            <feature>
              <rects>
                <_>
                  8 2 1 2 -1.</_>
                <_>
                  8 3 1 1 2.</_></rects>
              <tilted>0</tilted></feature>
            <threshold>-3.8200789276743308e-005</threshold>
            <left_val>0.1455923020839691</left_val>
            <right_val>-0.1776123046875000</right_val></_></_>
        <_>
          <_>
            <feature>
              <rects>
                <_>
                  8 0 1 3 -1.</_>
                <_>
                  8 1 1 1 3.</_></rects>
              <tilted>0</tilted></feature>
            <threshold>-4.1941818781197071e-003</threshold>
            <left_val>0.4913434982299805</left_val>
            <right_val>-0.0657196491956711</right_val></_></_>
        <_>
          <_>
            <feature>
              <rects>
                <_>
                  8 4 12 16 -1.</_>
                <_>
                  8 12 12 8 2.</_></rects>
              <tilted>0</tilted></feature>
            <threshold>-0.0590159185230732</threshold>
            <left_val>0.0959267392754555</left_val>
            <right_val>-0.3089773058891296</right_val></_></_>
        <_>
          <_>
            <feature>
              <rects>
                <_>
                  13 18 2 1 -1.</_>
                <_>
                  14 18 1 1 2.</_></rects>
              <tilted>0</tilted></feature>
            <threshold>1.8079370420309715e-005</threshold>
            <left_val>-0.1851678043603897</left_val>
            <right_val>0.1563744992017746</right_val></_></_>
        <_>
          <_>
            <feature>
              <rects>
                <_>
                  18 13 2 5 -1.</_>
                <_>
                  18 13 1 5 2.</_></rects>
              <tilted>1</tilted></feature>
            <threshold>0.0119844498112798</threshold>
            <left_val>-0.0767128169536591</left_val>
            <right_val>0.3385153114795685</right_val></_></_>
        <_>
          <_>
            <feature>
              <rects>
                <_>
                  16 17 2 1 -1.</_>
                <_>
                  17 17 1 1 2.</_></rects>
              <tilted>0</tilted></feature>
            <threshold>4.4493430323200300e-005</threshold>
            <left_val>-0.1522372066974640</left_val>
            <right_val>0.1708943992853165</right_val></_></_>
        <_>
          <_>
            <feature>
              <rects>
                <_>
                  0 1 20 8 -1.</_>
                <_>
                  5 1 10 8 2.</_></rects>
              <tilted>0</tilted></feature>
            <threshold>-0.1639385074377060</threshold>
            <left_val>0.4576131105422974</left_val>
            <right_val>-0.0646880567073822</right_val></_></_>
        <_>
          <_>
            <feature>
              <rects>
                <_>
                  4 0 9 3 -1.</_>
                <_>
                  3 1 9 1 3.</_></rects>
              <tilted>1</tilted></feature>
            <threshold>0.0432654693722725</threshold>
            <left_val>0.0321824401617050</left_val>
            <right_val>-0.9136816263198853</right_val></_></_>
        <_>
          <_>
            <feature>
              <rects>
                <_>
                  2 3 3 3 -1.</_>
                <_>
                  3 4 1 1 9.</_></rects>
              <tilted>0</tilted></feature>
            <threshold>-8.3238463848829269e-003</threshold>
            <left_val>0.2817525863647461</left_val>
            <right_val>-0.0957791283726692</right_val></_></_>
        <_>
          <_>
            <feature>
              <rects>
                <_>
                  2 5 9 4 -1.</_>
                <_>
                  5 5 3 4 3.</_></rects>
              <tilted>0</tilted></feature>
            <threshold>-0.0467790216207504</threshold>
            <left_val>-0.7222502231597900</left_val>
            <right_val>0.0372642315924168</right_val></_></_>
        <_>
          <_>
            <feature>
              <rects>
                <_>
                  12 4 2 12 -1.</_>
                <_>
                  9 7 2 6 2.</_></rects>
              <tilted>1</tilted></feature>
            <threshold>-0.0455041117966175</threshold>
            <left_val>0.3635163903236389</left_val>
            <right_val>-0.0807373896241188</right_val></_></_>
        <_>
          <_>
            <feature>
              <rects>
                <_>
                  0 5 15 9 -1.</_>
                <_>
                  5 8 5 3 9.</_></rects>
              <tilted>0</tilted></feature>
            <threshold>0.1619766950607300</threshold>
            <left_val>-0.1116236001253128</left_val>
            <right_val>0.2676970958709717</right_val></_></_>
        <_>
          <_>
            <feature>
              <rects>
                <_>
                  4 16 8 2 -1.</_>
                <_>
                  8 16 4 2 2.</_></rects>
              <tilted>0</tilted></feature>
            <threshold>9.7646331414580345e-003</threshold>
            <left_val>-0.0903851315379143</left_val>
            <right_val>0.3086751103401184</right_val></_></_>
        <_>
          <_>
            <feature>
              <rects>
                <_>
                  10 8 8 8 -1.</_>
                <_>
                  10 10 8 4 2.</_></rects>
              <tilted>0</tilted></feature>
            <threshold>-0.0821394175291061</threshold>
            <left_val>-0.7395892739295960</left_val>
            <right_val>0.0370272099971771</right_val></_></_>
        <_>
          <_>
            <feature>
              <rects>
                <_>
                  1 5 4 3 -1.</_>
                <_>
                  2 5 2 3 2.</_></rects>
              <tilted>0</tilted></feature>
            <threshold>-5.5878981947898865e-003</threshold>
            <left_val>-0.4330120086669922</left_val>
            <right_val>0.0527696199715137</right_val></_></_>
        <_>
          <_>
            <feature>
              <rects>
                <_>
                  3 4 2 2 -1.</_>
                <_>
                  3 4 1 1 2.</_>
                <_>
                  4 5 1 1 2.</_></rects>
              <tilted>0</tilted></feature>
            <threshold>6.7621469497680664e-004</threshold>
            <left_val>-0.1160411015152931</left_val>
            <right_val>0.2511557936668396</right_val></_></_>
        <_>
          <_>
            <feature>
              <rects>
                <_>
                  6 0 6 1 -1.</_>
                <_>
                  8 0 2 1 3.</_></rects>
              <tilted>0</tilted></feature>
            <threshold>-8.1565007567405701e-003</threshold>
            <left_val>-0.5089492201805115</left_val>
            <right_val>0.0489594601094723</right_val></_></_>
        <_>
          <_>
            <feature>
              <rects>
                <_>
                  3 3 3 2 -1.</_>
                <_>
                  4 3 1 2 3.</_></rects>
              <tilted>0</tilted></feature>
            <threshold>2.3501899559050798e-003</threshold>
            <left_val>-0.0973595231771469</left_val>
            <right_val>0.3067649900913239</right_val></_></_>
        <_>
          <_>
            <feature>
              <rects>
                <_>
                  2 0 2 2 -1.</_>
                <_>
                  2 0 2 1 2.</_></rects>
              <tilted>1</tilted></feature>
            <threshold>-5.0026499666273594e-003</threshold>
            <left_val>-0.3634045124053955</left_val>
            <right_val>0.0684733167290688</right_val></_></_>
        <_>
          <_>
            <feature>
              <rects>
                <_>
                  0 2 12 4 -1.</_>
                <_>
                  3 2 6 4 2.</_></rects>
              <tilted>0</tilted></feature>
            <threshold>-0.0299313403666019</threshold>
            <left_val>0.3316532075405121</left_val>
            <right_val>-0.0939109474420547</right_val></_></_>
        <_>
          <_>
            <feature>
              <rects>
                <_>
                  0 0 4 7 -1.</_>
                <_>
                  1 0 2 7 2.</_></rects>
              <tilted>0</tilted></feature>
            <threshold>0.0204532798379660</threshold>
            <left_val>0.0445897988975048</left_val>
            <right_val>-0.6072587966918945</right_val></_></_>
        <_>
          <_>
            <feature>
              <rects>
                <_>
                  0 5 2 1 -1.</_>
                <_>
                  1 5 1 1 2.</_></rects>
              <tilted>0</tilted></feature>
            <threshold>1.9515480744303204e-005</threshold>
            <left_val>-0.1783190965652466</left_val>
            <right_val>0.1708510965108872</right_val></_></_>
        <_>
          <_>
            <feature>
              <rects>
                <_>
                  14 19 3 1 -1.</_>
                <_>
                  15 19 1 1 3.</_></rects>
              <tilted>0</tilted></feature>
            <threshold>1.3948020059615374e-003</threshold>
            <left_val>0.0643692687153816</left_val>
            <right_val>-0.3641487956047058</right_val></_></_>
        <_>
          <_>
            <feature>
              <rects>
                <_>
                  13 19 2 1 -1.</_>
                <_>
                  14 19 1 1 2.</_></rects>
              <tilted>0</tilted></feature>
            <threshold>1.7949199900613166e-005</threshold>
            <left_val>-0.1790682971477509</left_val>
            <right_val>0.1562025994062424</right_val></_></_>
        <_>
          <_>
            <feature>
              <rects>
                <_>
                  11 19 4 1 -1.</_>
                <_>
                  12 19 2 1 2.</_></rects>
              <tilted>0</tilted></feature>
            <threshold>-5.4102222202345729e-004</threshold>
            <left_val>-0.2299973070621491</left_val>
            <right_val>0.1155596002936363</right_val></_></_>
        <_>
          <_>
            <feature>
              <rects>
                <_>
                  16 13 4 6 -1.</_>
                <_>
                  17 13 2 6 2.</_></rects>
              <tilted>0</tilted></feature>
            <threshold>-5.1338020712137222e-003</threshold>
            <left_val>0.1882887035608292</left_val>
            <right_val>-0.1436901986598969</right_val></_></_>
        <_>
          <_>
            <feature>
              <rects>
                <_>
                  0 2 1 6 -1.</_>
                <_>
                  0 4 1 2 3.</_></rects>
              <tilted>0</tilted></feature>
            <threshold>2.3810729908291250e-004</threshold>
            <left_val>-0.1557139009237289</left_val>
            <right_val>0.1605660021305084</right_val></_></_>
        <_>
          <_>
            <feature>
              <rects>
                <_>
                  12 0 6 16 -1.</_>
                <_>
                  14 0 2 16 3.</_></rects>
              <tilted>0</tilted></feature>
            <threshold>-0.0776847824454308</threshold>
            <left_val>-0.7679376006126404</left_val>
            <right_val>0.0338655002415180</right_val></_></_>
        <_>
          <_>
            <feature>
              <rects>
                <_>
                  12 7 8 1 -1.</_>
                <_>
                  14 9 4 1 2.</_></rects>
              <tilted>1</tilted></feature>
            <threshold>-0.0140445902943611</threshold>
            <left_val>0.2888045907020569</left_val>
            <right_val>-0.0955026671290398</right_val></_></_>
        <_>
          <_>
            <feature>
              <rects>
                <_>
                  11 2 3 18 -1.</_>
                <_>
                  12 8 1 6 9.</_></rects>
              <tilted>0</tilted></feature>
            <threshold>0.0851486325263977</threshold>
            <left_val>-0.0868436098098755</left_val>
            <right_val>0.2838357985019684</right_val></_></_>
        <_>
          <_>
            <feature>
              <rects>
                <_>
                  9 0 10 7 -1.</_>
                <_>
                  9 0 5 7 2.</_></rects>
              <tilted>1</tilted></feature>
            <threshold>0.2850849926471710</threshold>
            <left_val>-0.0357960388064384</left_val>
            <right_val>0.6689071059226990</right_val></_></_>
        <_>
          <_>
            <feature>
              <rects>
                <_>
                  18 9 2 2 -1.</_>
                <_>
                  18 9 1 1 2.</_>
                <_>
                  19 10 1 1 2.</_></rects>
              <tilted>0</tilted></feature>
            <threshold>-5.9108377899974585e-004</threshold>
            <left_val>0.2650085091590881</left_val>
            <right_val>-0.0894415974617004</right_val></_></_>
        <_>
          <_>
            <feature>
              <rects>
                <_>
                  0 11 2 2 -1.</_>
                <_>
                  0 11 1 1 2.</_>
                <_>
                  1 12 1 1 2.</_></rects>
              <tilted>0</tilted></feature>
            <threshold>7.2173820808529854e-004</threshold>
            <left_val>-0.0915735512971878</left_val>
            <right_val>0.2562715113162994</right_val></_></_>
        <_>
          <_>
            <feature>
              <rects>
                <_>
                  4 10 3 4 -1.</_>
                <_>
                  3 11 3 2 2.</_></rects>
              <tilted>1</tilted></feature>
            <threshold>-0.0109523897990584</threshold>
            <left_val>0.2610492110252380</left_val>
            <right_val>-0.0914021804928780</right_val></_></_>
        <_>
          <_>
            <feature>
              <rects>
                <_>
                  4 1 16 3 -1.</_>
                <_>
                  8 1 8 3 2.</_></rects>
              <tilted>0</tilted></feature>
            <threshold>-0.0516161099076271</threshold>
            <left_val>0.3691658973693848</left_val>
            <right_val>-0.0672628507018089</right_val></_></_>
        <_>
          <_>
            <feature>
              <rects>
                <_>
                  3 1 12 5 -1.</_>
                <_>
                  9 1 6 5 2.</_></rects>
              <tilted>0</tilted></feature>
            <threshold>0.0380427986383438</threshold>
            <left_val>-0.1010987982153893</left_val>
            <right_val>0.2851057946681976</right_val></_></_>
        <_>
          <_>
            <feature>
              <rects>
                <_>
                  0 10 3 2 -1.</_>
                <_>
                  1 10 1 2 3.</_></rects>
              <tilted>0</tilted></feature>
            <threshold>2.6297429576516151e-003</threshold>
            <left_val>-0.0849228128790855</left_val>
            <right_val>0.2971147894859314</right_val></_></_>
        <_>
          <_>
            <feature>
              <rects>
                <_>
                  0 0 2 2 -1.</_>
                <_>
                  0 1 2 1 2.</_></rects>
              <tilted>0</tilted></feature>
            <threshold>-1.5552949625998735e-003</threshold>
            <left_val>-0.2733891010284424</left_val>
            <right_val>0.0887690931558609</right_val></_></_>
        <_>
          <_>
            <feature>
              <rects>
                <_>
                  1 1 12 4 -1.</_>
                <_>
                  4 1 6 4 2.</_></rects>
              <tilted>0</tilted></feature>
            <threshold>9.4050737097859383e-003</threshold>
            <left_val>-0.1195548996329308</left_val>
            <right_val>0.2125408053398132</right_val></_></_>
        <_>
          <_>
            <feature>
              <rects>
                <_>
                  11 0 2 2 -1.</_>
                <_>
                  11 0 2 1 2.</_></rects>
              <tilted>1</tilted></feature>
            <threshold>2.7439231052994728e-003</threshold>
            <left_val>-0.1309074014425278</left_val>
            <right_val>0.2033236026763916</right_val></_></_>
        <_>
          <_>
            <feature>
              <rects>
                <_>
                  6 5 8 4 -1.</_>
                <_>
                  8 5 4 4 2.</_></rects>
              <tilted>0</tilted></feature>
            <threshold>-0.0189751591533422</threshold>
            <left_val>-0.4782019853591919</left_val>
            <right_val>0.0535219497978687</right_val></_></_>
        <_>
          <_>
            <feature>
              <rects>
                <_>
                  10 6 6 2 -1.</_>
                <_>
                  12 6 2 2 3.</_></rects>
              <tilted>0</tilted></feature>
            <threshold>-8.8435467332601547e-003</threshold>
            <left_val>-0.3903669118881226</left_val>
            <right_val>0.0597629696130753</right_val></_></_></trees>
      <stage_threshold>-0.9235615730285645</stage_threshold>
      <parent>5</parent>
      <next>-1</next></_>
    <_>
      <trees>
        <_>
          <_>
            <feature>
              <rects>
                <_>
                  4 5 10 3 -1.</_>
                <_>
                  4 6 10 1 3.</_></rects>
              <tilted>0</tilted></feature>
